solver_type L2R_L2LOSS_SVC_DUAL
nr_class 2
label 1 0
nr_feature 937
bias -1
w
0 
0 
0 
0 
0 
0 
2.710505431213761e-020 
0 
0 
0 
0.3064005345074581 
0.1818915933695792 
0 
0.7325961336587208 
0.2282561824079884 
-0.003214223221546034 
1.182222454324139 
-0.001853061165983699 
-1.897353801849633e-019 
0 
1.387778780781446e-017 
2.081668171172169e-017 
0 
0 
0 
0.2244307248566879 
0 
0 
0 
0.2334154951536978 
0.009104190127463684 
0 
0.2210664575604924 
0 
-1.187134456806292 
-0.3458865213015171 
-0.003214223221546034 
0 
0 
0 
0 
6.938893903907228e-018 
-0.1073608519165085 
-0.001072851575928689 
-0.2858260427720845 
-0.9820534408380819 
0 
-1.216646315295248 
-4.336808689942018e-019 
0 
0 
0 
0.04373870109762249 
-0.1721736332446111 
0 
-1.159363510161325 
0.08675855700206503 
0 
0 
-0.003214223221546034 
0 
0 
0 
0 
0 
0 
0.2557963920504699 
0 
-0.6591295507696509 
-0.003214223221546034 
-3.252606517456513e-019 
-7.115076756936123e-019 
0 
0 
-1.063324888130792 
0 
0 
-0.7834120402138922 
0.4652631621806384 
0.4715227453214712 
-0.2615981660126678 
0 
2.949029909160572e-017 
0 
0 
-0.04441252060685099 
0 
-0.3145595972662401 
-0.4580075633487998 
0 
-2.236528920676874 
-0.003214223221546034 
-0.01355061247915421 
0 
0 
1.938828199684715 
0 
0 
0 
0 
0.4143387167525857 
-0.1276360592982182 
-0.003214223221546034 
0 
0.08290920628633028 
0.2414683999644298 
0 
-0.003214223221546034 
2.38524477946811e-017 
0 
-0.003214223221546034 
-0.9955906035232524 
0 
0.1528293831450449 
0.2025071850884949 
1.001131988750269 
0 
0 
0 
0 
0 
0 
0 
0.4806132074832024 
0 
0 
0 
0 
0 
0.06455443822139974 
1.387778780781446e-017 
0 
0 
1.734723475976807e-018 
0 
0 
0 
0 
1.387778780781446e-017 
0 
0 
0 
-7.115076756936123e-019 
-0.1721736332446111 
0 
-4.336808689942018e-019 
1.734723475976807e-018 
3.469446951953614e-017 
0.009104190127463684 
0.5070780105101258 
0 
0 
2.949029909160572e-017 
0 
0 
0 
0.01528409996984785 
0 
-0.09044038521675701 
-1.269420277548309 
-0.001327792514747323 
2.949029909160572e-017 
8.673617379884036e-019 
1.14722291659874 
0.08400438878547213 
-1.387778780781446e-017 
-0.003214223221546034 
0 
0.1528293831450449 
0 
0 
0 
0 
0 
0 
0.02729325295062445 
0 
0.8371031675431746 
3.382710778154774e-017 
-0.1981150020263926 
0 
0.4143387167525857 
-1.215472539247829 
0 
0 
-0.002338612652961709 
0.1971170606620604 
9.974659986866641e-018 
-0.4226704487151193 
-0.4427990407417257 
-0.6451728317303491 
1.734723475976807e-018 
0.2493733224967034 
0.1121210420472826 
0 
0 
0.1341932136437453 
8.673617379884036e-019 
-0.1873473116383393 
0 
0 
0 
0.1312409412289891 
6.938893903907228e-018 
0.1341932136437453 
0 
1.734723475976807e-018 
0.6043820547111923 
-0.003214223221546034 
0.08290920628633026 
8.673617379884036e-019 
0 
0 
0.3666017420059038 
0.4553541734419184 
0 
0 
0.08290920628633028 
0 
0 
0 
0.2735807537736417 
0.1794842255413845 
0 
0 
0 
0 
0.6518331327789469 
1.734723475976807e-018 
0 
0 
0 
8.673617379884036e-019 
-3.469446951953614e-018 
2.710505431213761e-020 
-0.002051385937862271 
-1.897353801849633e-019 
-0.08336418711725073 
-0.8871701965641543 
0.03736967660982261 
0 
0.16074512601568 
2.602085213965211e-018 
1.084202172485504e-019 
0 
0 
0 
0 
0 
2.168404344971009e-019 
0.08815122170447347 
0 
0.05825590187522887 
0.08290920628633026 
0 
0 
0.1748785994981132 
0 
0 
0 
0 
0 
0.05825590187522887 
0 
-0.003214223221546034 
0.1121210420472826 
0 
-0.003214223221546034 
0.1341932136437453 
3.382710778154774e-017 
0 
0 
-0.2757221195478774 
2.584396946082546e-005 
0 
-0.3681210691858807 
0.1181029043569272 
0 
0.2244307248566879 
0 
0 
-0.0137038861676138 
0 
0 
0 
0 
0.02078077060290515 
0 
0 
0 
0 
0.03736967660982261 
-1.897353801849633e-019 
-4.336808689942018e-019 
0.356489960059972 
0 
-0.6440659243473416 
0 
0 
2.710505431213761e-020 
0 
0 
0 
0.08675855700206503 
0 
0 
0 
0.2963180507560617 
0.08815122170447347 
0 
0 
0 
-0.3520706067543344 
0 
0 
0.1415704391300773 
0 
0 
0.2916713970289261 
0 
9.974659986866641e-018 
-0.003214223221546034 
0 
1.28799701276902 
-1.040834085586084e-017 
0 
0 
-6.505213034913027e-019 
0.06114465312676039 
0 
0 
0 
0 
0 
-0.4530718800314973 
0 
0 
0.4365323968604542 
0 
0 
0 
-1.517883041479706e-018 
0.3666017420059038 
-0.09115520449299672 
0.3168304496091235 
0 
-0.496726952226056 
0.02196308755010181 
-0.1102970819437878 
0.00910419012746368 
0 
0 
0 
0 
-0.6481641356445613 
0.02665484239633974 
0 
0 
0.02078077060290515 
0.08815122170447347 
2.027458062547893e-017 
0.7325961336587208 
0 
0 
3.035766082959412e-018 
-0.06278281436755283 
0 
0.07218317868023996 
0 
0 
0 
0 
0 
-0.008869864285458566 
0.131240941228989 
0.703307194509853 
1.464290681743544 
-4.336808689942018e-018 
0 
0.08815122170447347 
0 
0.1964789593370288 
-0.1943564076405376 
-7.115076756936123e-019 
0 
0.1341932136437453 
0 
0.5459010784979014 
0.2334154951536978 
-0.04397690383349277 
0.1019896258671011 
0 
0 
0.08675855700206503 
0 
0 
0.009104190127463684 
0 
0.8006622029011723 
-0.1263185388387954 
0.8371031675431746 
-0.003214223221546034 
0.7325961336587192 
0.2155523216424896 
0.02665484239633974 
0 
-0.2954690433477143 
0 
1.482307657695026e-020 
0.08290920628633029 
0 
0 
0 
0 
0 
0 
0 
0.1945680177404417 
0 
-1.387778780781446e-017 
0.009104190127463684 
0 
0 
2.949029909160572e-017 
0.7581825032834055 
0 
0 
0 
4.336808689942018e-019 
-0.09164827468585209 
-0.002069244667810238 
0.2735807537736417 
1.084202172485504e-019 
0 
0.06964344265887981 
0.1945680177404416 
0 
2.38524477946811e-017 
0 
0 
-0.02462099613497651 
0.1794842255413845 
0 
0.009104190127463684 
-0.1942771069088489 
3.469446951953614e-018 
0.2505725900918941 
0 
0.2414683999644298 
-7.115076756936123e-019 
0 
0.1945680177404416 
0 
0.08290920628633026 
0 
1.387778780781446e-017 
-0.8893892151749453 
0.2305383811915543 
1.28799701276902 
0 
0 
0.02207940912241018 
0 
0 
-0.09442812342272475 
0 
0.2334154951536976 
0 
0 
0 
0 
0 
0 
0 
0 
0 
0 
0 
-1.897353801849633e-019 
0 
0.2244307248566879 
-0.003214223221546034 
0 
0 
0 
0.2244307248566879 
0.2735807537736417 
-0.003214223221546034 
8.673617379884036e-019 
-0.01734677361809407 
-0.003214223221546034 
0.3873825126088089 
0 
0.03736967660982261 
0 
0 
0 
2.542072490767117 
0.009104190127463684 
1.387778780781446e-017 
0 
6.938893903907228e-018 
-4.336808689942018e-018 
-0.003214223221546034 
0 
-8.673617379884036e-019 
0 
0 
0 
-0.2588770005272069 
1.734723475976807e-018 
-3.252606517456513e-019 
2.38524477946811e-017 
0 
0 
0 
0.4963811890993393 
0 
0 
0.2334154951536978 
0.3873825126088089 
8.673617379884036e-019 
0 
0 
0 
0 
0 
0 
-2.061411314633185 
0.2334154951536976 
0.1964789593370288 
-0.3525250430854817 
0 
0 
0.2997798123404228 
1.084202172485504e-019 
0 
-4.336808689942018e-018 
4.336808689942018e-019 
0 
0.3323136086864291 
-0.05376654128559592 
-0.1721736332446111 
0 
0 
0 
-0.01167486252799905 
-0.2283037408693386 
0 
0 
2.949029909160572e-017 
0.2593823055736422 
0 
0 
0 
-1.412266599717281 
-7.115076756936123e-019 
0.8835949673503651 
0 
8.673617379884036e-019 
0 
0 
-0.9976548223098882 
0.2244307248566879 
-0.003214223221546034 
0 
0 
0 
0 
0 
-0.003214223221546034 
0 
0 
0 
0 
-0.1560853235934434 
-1.111660390507868 
0.4429883787017956 
0.008652548053810355 
0 
0.7581825032834055 
0.2334154951536976 
1.749546552553757e-018 
0 
0 
0 
-0.4970423731013271 
0.2414683999644298 
0 
0.1964789593370288 
0 
0.009104190127463684 
8.673617379884036e-019 
0.1435342521432511 
0 
-0.003214223221546034 
0 
0 
3.035766082959412e-018 
0 
8.673617379884036e-019 
3.035766082959412e-018 
1.52200252957242 
0 
0 
0.1312409412289891 
0.6144843367285178 
0.5283646703399169 
0 
0 
-0.003214223221546034 
0 
0 
0 
0 
0.05825590187522887 
0.009104190127463684 
0 
0.1312409412289891 
0.009104190127463684 
0.00554680230120802 
0.009104190127463684 
0 
0 
0 
0.08675855700206503 
0 
4.336808689942018e-019 
0.004835834400582719 
-4.77048955893622e-018 
0.1794842255413845 
0 
0.08643161710014356 
0 
0.1312409412289891 
0 
0.0567756951411859 
0 
0 
0 
-0.3833274311841158 
-0.003214223221546034 
0 
0.4454336138752398 
0.55901787125073 
0.007053359139333501 
0.1181029043569273 
0 
0 
0 
0 
0.1945680177404417 
0 
0.1794842255413845 
0 
0.1312409412289891 
0 
0.009104190127463684 
0 
0.004368957985574467 
0.04173863459539708 
0.1121210420472826 
0 
-4.336808689942018e-019 
-0.7087581293146505 
-0.003370524714869589 
-0.2678225650345584 
-0.9730391365011306 
0 
0 
0 
0.1181029043569273 
0 
0 
0.06769245558100884 
-1.066536455740426 
-6.505213034913027e-019 
0.2334154951536976 
0 
0.009104190127463684 
0 
0 
0.5459010784979014 
-0.5949681965853351 
0 
2.949029909160572e-017 
0.3465969244556021 
0 
-0.6481641356445613 
0 
2.168404344971009e-019 
0 
0 
-0.1341453189370443 
0 
0.08290920628633026 
0.1341932136437453 
0.08523753570114602 
1.084202172485504e-019 
0 
-0.0009783793812728054 
0 
0 
0 
0.02078077060290513 
0 
0 
-0.6988913350131829 
0 
0 
0 
-0.00321422322154584 
-0.05844060640434319 
-0.4983893990859306 
0.3761061735987493 
0 
2.584396946082546e-005 
-0.6481641356445616 
-4.336808689942018e-018 
1.387778780781446e-017 
0 
0.4806132074832024 
0 
0 
0 
0 
0.0006126924547876318 
-0.6842674407061561 
0 
0 
0 
0 
0 
0 
0 
0 
0.1121210420472826 
0 
0.2414683999644298 
-0.0112562284371997 
0 
0 
0 
0 
-3.469446951953614e-018 
0 
0 
0 
0 
0 
0 
-6.505213034913027e-019 
0.4398789915567987 
0 
-4.336808689942018e-019 
0.4553541734419184 
0 
1.734723475976807e-018 
0 
0 
0 
9.974659986866641e-018 
-0.003214223221546034 
0 
-0.4970423731013272 
0.04173863459539708 
0 
3.469446951953614e-018 
0.16058957079644 
0 
0 
-0.003214223221546034 
0 
0 
0.1312409412289891 
0 
0 
0 
-4.336808689942018e-018 
0.005889966905917657 
0 
-0.003214223221546034 
-0.003214223221546034 
0 
0.002096282467956262 
0.1341932136437453 
0.08290920628633029 
4.336808689942018e-019 
0 
0 
0 
0.09828371017538627 
-0.3525250430854818 
0.1341932136437453 
0 
0.2244307248566879 
8.673617379884036e-019 
8.673617379884036e-019 
0.03736967660982261 
-0.1102970819437878 
-0.2184684465373262 
-0.07005368799984674 
0 
0 
-0.06278281436755283 
0.2244307248566879 
-4.77048955893622e-018 
0.1964789593370288 
0 
0.1121210420472826 
0 
0 
-4.336808689942018e-019 
0.05825590187522885 
0.05825590187522885 
-0.003214223221546034 
0 
0.1945680177404417 
0 
0 
0 
2.38524477946811e-017 
0 
1.734723475976807e-018 
-0.09160764367082627 
0 
0.1435600961127116 
-4.336808689942018e-018 
-0.497042373101327 
8.673617379884036e-019 
0 
0.5283646703399171 
0 
0.1964789593370288 
0 
0 
0 
0 
0.7581825032834058 
0 
0 
0 
0 
0.1341932136437453 
0 
0 
0.1121210420472826 
0 
0 
0.04173863459539708 
0 
0 
0 
0.00705335913933348 
0.5060068585538318 
0.1294778532116745 
0 
0 
-4.336808689942018e-019 
0 
0 
0 
1.171845329658474 
0 
0 
-7.115076756936123e-019 
0.1945680177404416 
0 
-0.6898274260398075 
0.2334154951536976 
8.673617379884036e-019 
5.218993504507372e-018 
0 
0 
0 
0.1181029043569273 
0.4806132074832022 
0.1181029043569272 
0 
0 
0 
-1.384821495701749 
0 
0 
0 
0 
0.1528293831450449 
0.2414683999644298 
0.1312409412289891 
0.3666017420059038 
0.356489960059972 
0 
0 
-6.505213034913027e-019 
0.1232637263336666 
0 
0.009104190127463684 
-0.09164827468585209 
0 
0 
0.1964789593370288 
-3.469446951953614e-018 
9.974659986866641e-018 
0.1964789593370288 
0.2023092284377848 
6.938893903907228e-018 
1.89392693482116 
0 
0 
0 
0.03736967660982261 
0 
9.974659986866641e-018 
0.02602184905020659 
0.7581825032834058 
-1.897353801849633e-019 
0 
0.08815122170447347 
0.6829293007952934 
0.0139400245280464 
0 
0 
0 
2.949029909160572e-017 
0 
0 
-0.1411350365720989 
0 
2.542072490767117 
0 
0 
0.04402195211188442 
2.949029909160572e-017 
0.3011079507347064 
-3.252606517456513e-019 
0 
9.974659986866641e-018 
