solver_type L2R_L2LOSS_SVC_DUAL
nr_class 2
label 1 0
nr_feature 1180
bias -1
w
-3.469446951953614e-018 
0.07994693699573022 
-0.1155687469340611 
0.2459309090236845 
1.480613591800517e-018 
0 
0 
0.2901148165657009 
0 
0.1483184363818048 
-0.3801237747915896 
-0.1155633539492647 
0 
0 
0 
-2.541098841762901e-019 
0 
-0.179950694599575 
0.0326571600641145 
0 
0 
0 
0 
0 
4.336808689942018e-019 
0.01000236897969274 
-0.4099477222375577 
0 
0.00601661630789507 
0 
-0.2571073672909667 
-0.3215325039252905 
0 
0 
0.02589247306704572 
-0.347199276337903 
0 
-0.7684176472857766 
0 
-0.2549971621213775 
0 
0 
0 
0 
0 
-0.3855902033145881 
0 
0.1483184363818048 
0 
0 
0.0294126389682037 
0 
-0.9153360625367113 
0.1510425168781216 
4.065758146820642e-019 
0.08900303031624161 
0 
0 
0.403305689959348 
0.0005285502442095602 
0 
0.07881037707405775 
0 
0 
0.0615131231697732 
0 
-0.01749613082082026 
0.2796527565919812 
0 
0 
2.602085213965211e-018 
0 
-0.04524755230092709 
0 
0 
0.1510425168781217 
0.01404254542553029 
0 
-0.1859261327314311 
0 
-1.734723475976807e-018 
0.05882527793640739 
0.06336606966913817 
0.07870822180072384 
0 
0 
0 
0 
0 
0 
0 
0.037273975654652 
0 
-0.4771871031345337 
0 
-0.3188881455722772 
-0.4740747778424302 
0.1732692704817103 
0 
-0.357444738546068 
0 
-0.1683471359320826 
0 
-0.01665537963117219 
-0.03042871024986703 
0.250012683753671 
0.0376279384144621 
0 
3.469446951953614e-018 
0 
0 
-0.3319870742106813 
0.1659831572844783 
-0.09201323031625032 
-0.2298271223106253 
0.02659667977196198 
0 
-0.1607793133115347 
0.2953539032371641 
4.336808689942018e-019 
0 
0 
0 
0 
0.004451511031496915 
0 
0 
0 
0 
0 
0.3020850337562432 
0.227605187412748 
0 
0 
0.08299157864223913 
0 
0 
0.0005285502442095602 
-0.05716292498781995 
0 
-0.03778186622732185 
0 
0 
0.1358389234225906 
0.08900303031624161 
0 
0 
-0.5080281422760137 
0 
-1.387778780781446e-017 
0 
0.0005285502442095602 
0 
0 
0 
-2.168404344971009e-019 
-1.734723475976807e-018 
0 
0 
2.775557561562891e-017 
0 
0 
-2.276824562219559e-018 
0.4915335276077448 
0 
0 
0 
-0.8126659684850139 
0 
0 
0.04839975092528911 
0.07356457073095477 
-0.4852678660910594 
0.1924415364861479 
0.03935411090036192 
0.1483184363818048 
0 
0 
0 
3.469446951953614e-018 
-0.1050391507004034 
0.0005285502442095602 
-0.3068197879714514 
0 
0 
0 
0 
-0.2945472207508241 
0 
0 
-2.541098841762901e-019 
-0.1623324317734467 
-0.447142444667007 
0 
0.01792138546015135 
0 
0 
0 
8.673617379884036e-019 
0 
-0.3525430522317476 
-0.2710326560159976 
0 
0.0394456160853228 
0.00105710048841912 
0 
-0.2916906720667434 
0 
0.1135503043155026 
0 
0.0294126389682037 
0 
0 
0 
0 
0 
0 
0.2966368727636096 
0 
8.673617379884036e-019 
0 
-1.301042606982605e-018 
0.06336606966913816 
-2.168404344971009e-019 
-0.004218217631410845 
0 
0 
0.2972479366395017 
0 
0.1659831572844783 
-0.2608412136451096 
0.004980061275706478 
0.1230262463395463 
0 
0 
0.3747341279192906 
0 
0.03168303483456909 
0.09892510305931426 
0 
0.01424416426639742 
0.02331209450496927 
0.1902327851207415 
0.0005285502442095602 
0 
0 
0 
0 
0 
0.1433474174389007 
0.09679343531018121 
0 
-0.2366124919564992 
0 
0 
0 
0.02723934510719142 
0 
0.219541587789676 
0 
0 
0 
0 
0.07881037707405773 
0.05954750879832097 
-0.1789067640741145 
0 
0 
-0.1069609567342937 
-0.2979667228223547 
0 
-1.734723475976807e-018 
0.09988620127580729 
0.3186696621186475 
0.1636274325474252 
0.3957249775687802 
0.004980061275706478 
0.2246481597029443 
0.1024815026777169 
0 
0 
0 
-1.734723475976807e-018 
0 
-0.01386553779664993 
0.004980061275706476 
0 
0 
0.06554718483426972 
-2.775557561562891e-017 
-0.2571073672909667 
0 
0 
0.0483997509252891 
0 
0 
0 
0 
0 
0 
0 
0.1935868706203624 
-0.3712196188949316 
0.07994693699573022 
0 
0.0788912321706456 
-0.09289525470122098 
0 
0 
0.08299157864223916 
4.77048955893622e-018 
0 
0 
0.1510425168781216 
0.1457051228966297 
-0.08980687471116988 
0 
0.02589247306704572 
-0.04181947934390193 
-0.2839821353085331 
6.505213034913027e-018 
-1.387778780781446e-017 
-5.421010862427522e-019 
0.0394456160853228 
0 
0.1267028704458262 
0.07356457073095477 
8.673617379884036e-019 
0 
0 
0 
0 
-0.004456745270559249 
0 
0 
0 
0 
0 
0.9637609209240428 
1.084202172485504e-018 
0 
0 
-9.215718466126788e-018 
0.05882527793640746 
0 
0 
0 
-0.4084775192981099 
-0.518738131243192 
0 
0.01361967255359571 
-0.2798513762280347 
0.6570106725718976 
-1.531435568635775e-018 
0 
0.3255446327859883 
-1.734723475976807e-018 
0 
-6.938893903907228e-018 
2.032879073410321e-019 
-1.259515081252051 
0.1014474631186107 
0 
0 
0 
0 
0 
-0.3252058190264944 
0.0294126389682037 
0 
0 
-3.469446951953614e-018 
0.002827945715591784 
0.1483184363818048 
0 
0 
0 
0 
0.05677515215775129 
0.1698564860853525 
0 
0 
0 
0 
0.412225332524552 
0 
0 
-0.09173735424008299 
0 
0.07994693699573022 
0 
-0.09952621925823429 
0 
1.734723475976807e-018 
0.1766264669934344 
0.08499344886794086 
0.008903022062993829 
-1.734723475976807e-018 
0 
0 
0 
0 
4.065758146820642e-019 
0 
0 
8.673617379884036e-019 
0.113802593706374 
0 
0 
0 
-1.626303258728257e-018 
0 
0 
0.1267028704458262 
0 
4.336808689942018e-018 
0 
-0.1701609172861353 
0.05178494613409143 
-0.2125402527256149 
-0.5439419465175855 
-0.4705882352941176 
0.004451511031496915 
-0.1258757232371644 
-0.0363581158299774 
0 
0 
0 
0 
0.05661537082971597 
0 
0.3478419564423724 
0 
0.3764620084696351 
0.2385829342210356 
0.8333888509259297 
-0.06146731885591517 
0 
0 
7.403067959002585e-019 
0.06114062906687281 
0 
0 
0 
-0.2287220739574361 
0 
1.148325865331246 
0.1659831572844783 
0 
0.001319519063695605 
0 
0.1772814159700923 
0 
0 
-0.2898494690907214 
0.05882527793640739 
0 
0 
0 
0 
0.0005285502442095602 
0 
0 
-0.458480058811346 
0 
0 
0 
0 
0 
0 
-0.3506966456150247 
-0.8 
0 
-0.1020633450712603 
0 
2.081668171172169e-017 
0 
0.1278547745860894 
0 
0.4675533686176569 
0 
0 
0 
-2.541098841762901e-019 
1.850420613707205 
0 
0.08299157864223916 
1.084202172485504e-018 
0 
0 
-0.7999999999999999 
-0.326530612245057 
0 
8.673617379884036e-019 
0 
0 
0 
0.2184844873012569 
2.054863102045978 
0 
0 
-0.008748065410410125 
0 
0 
0 
0 
0.05882527793640739 
0 
0 
0 
0 
0.0006597595318478023 
0 
0 
0.0394456160853228 
0.08449939190642376 
-0.3198662941300845 
0 
-0.2459214168675136 
-0.6164649140951876 
0.008903022062993829 
0 
1.734723475976807e-018 
-0.4087296605952806 
0 
0 
0.004451511031496915 
0.1220894722859802 
0.3494160009591038 
0 
0 
0 
0 
0.3158575000063033 
0 
-8.673617379884036e-018 
-9.215718466126788e-018 
0 
-0.04490343735558494 
0 
0 
0.4145650691592763 
0.1803350458960505 
0.2160120069824912 
0.1142351020324937 
0.0005285502442095602 
0.06114062906687281 
0.0394456160853228 
0.3069982416418965 
0 
0 
1.395819916507645 
0.08021075123434129 
0 
-0.2366124919564992 
0 
0 
0 
0 
0.1899196476049466 
0.228265373377535 
0 
0.0005285502442095602 
0 
0 
0.00105710048841912 
0.1598938739914604 
0.2437415739151135 
0 
0 
0.2421611267607444 
0.4076159885322027 
0.1581725218288208 
0 
0.2966368727636096 
0 
0 
1.734723475976807e-018 
0 
-1.270549420881451e-019 
0.8952937255551596 
0 
0 
0 
0 
0.0376279384144621 
-0.05778437346703056 
0.1780483666265799 
0.09495200249835406 
-0.4868842570973253 
0 
0.004451511031496915 
0 
0.0394456160853228 
6.938893903907228e-018 
0 
0 
0 
-0.2393023015796149 
0.1189564969183708 
0 
0 
0 
-0.03778186622732186 
0 
0 
0.04839975092528911 
1.376936759056591e-017 
0 
0.1104771649998615 
0.5508808896618341 
-0.1274985810606887 
0.03727397565465197 
-0.1156549983038837 
0 
-0.3948964031105693 
0 
0 
0 
0.004980061275706478 
0 
0 
0 
-0.0898068747111699 
0 
3.469446951953614e-018 
0 
0.1483184363818048 
0 
0 
0 
0 
4.336808689942018e-019 
0.01881396920723105 
0 
0.1898233211854262 
0.1008369254566616 
0 
5.312590645178972e-018 
0 
0 
-0.2461538461538461 
0 
0 
-2.541098841762901e-019 
0.05178494613409143 
0.02589247306704572 
0.01361967255359571 
0.0326571600641145 
0 
0 
0.09474324450353028 
-3.469446951953614e-018 
0 
0 
0.01881396920723105 
0 
-0.5616266217421164 
0 
0 
0 
0.1987740176212886 
-0.04524755230092711 
0.07356457073095477 
0 
0 
0.227605187412748 
0 
0.4213441140882189 
0.08113789749033516 
0 
0.0005285502442095602 
-0.2809597480102671 
0 
-0.8146274985630937 
0.2804509573754804 
0 
0.0005285502442095602 
0 
0 
0 
0 
0.008903022062993829 
0.4718693273376007 
0 
0.6858055587353605 
0 
-2.602085213965211e-018 
0 
0 
0 
0 
0.1135503043155026 
0.2225077756511724 
0 
0.06114062906687281 
0 
0 
-0.07151140897510996 
-2.602085213965211e-018 
0.6936266689283157 
0.0294126389682037 
0.06336606966913816 
-0.5597027524560695 
0.3716140564086691 
-0.1963773407963657 
-0.402122263900817 
0 
0 
0 
-1.734723475976807e-018 
0 
0 
-2.38524477946811e-018 
0.2966368727636096 
0 
0.1230262463395463 
0 
0.1340105747095755 
0 
-0.3471992763379029 
0 
9.540979117872439e-018 
0 
0 
0 
0 
0 
-0.1632653061227576 
0 
9.107298248878237e-018 
-0.122672017788326 
0 
0.02437168064496265 
-0.04653114993015152 
-0.06342760337554899 
0 
0 
-0.1325949085610735 
3.252606517456513e-018 
0 
-0.2735005184777213 
0 
0.008903022062993829 
0 
-0.08726043991641437 
0 
0 
-0.2081699943619153 
0 
7.806255641895632e-018 
0.1978502061186285 
0 
0 
-0.1092151855571597 
0 
0.161891366509087 
0.1780060606324832 
0.0210618384478046 
0 
-0.1371307251244971 
0.0967995018505782 
-0.2081643002365454 
0 
0 
-0.04747864160358316 
0 
0 
-2.602085213965211e-018 
0.4107890403816711 
0 
0 
0 
-0.3108242469255413 
0 
0 
0 
0 
-0.08853176164070982 
0 
0.0326571600641145 
0.2636598989197617 
0 
0 
0 
0.07994693699573022 
0 
0 
2.032879073410321e-019 
0 
0.00105710048841912 
0 
0.01361967255359571 
0 
0 
9.540979117872439e-018 
0.1652911277573331 
-5.082197683525802e-019 
0 
0.3937246716676218 
0 
0.07994693699573022 
0 
0 
0 
0.004451511031496915 
0 
0 
0 
0 
-0.5657427636956331 
0.1250063418768355 
0 
-0.01370617558107976 
0 
0 
0 
-1.734723475976807e-018 
0 
0 
0.005040958323241026 
0 
0 
-0.08980687471116988 
0 
0 
-0.3788326137945254 
0 
-1.270549420881451e-019 
0.2385829342210356 
0 
0 
0.2719866396864208 
0 
0 
0.03548510577970632 
8.673617379884036e-019 
0.0006597595318478023 
3.252606517456513e-019 
0 
0 
0 
-0.2719709732587928 
0 
0 
0.2627826591350577 
-1.387778780781446e-017 
0 
0 
0 
3.469446951953614e-018 
0 
0.05677515215775131 
7.403067959002585e-019 
0 
-0.1707132293033227 
0 
0.1946087428451062 
0 
-0.1748632074989462 
0.1433474174389008 
0 
3.469446951953614e-018 
0.004451511031496915 
0 
0 
-1.734723475976807e-018 
0 
-0.01749613082082026 
0 
0 
0 
0 
0 
0.3889895231527468 
0 
0.1299389802087395 
0 
0 
0.1318299494598808 
-1.270549420881451e-019 
-0.2010409991539771 
0.02589247306704572 
-1.734723475976807e-018 
0 
-0.4624399330539602 
0 
0.08264556387866653 
0 
0 
0 
0 
0 
0.2001485353151788 
0.00105710048841912 
0 
0.002580378562076434 
0 
0 
0.002025292935568893 
0.1405225683584623 
-0.2710326560159976 
0.004451511031496915 
-0.6534785426717904 
-0.07748989597118682 
-0.03042871024986703 
0.004451511031496915 
0 
0.1267028704458263 
0.1099128740950626 
-0.4659603719459546 
0.002580378562076434 
-0.3211311680721622 
0.0105309192239023 
0 
0.1151885199715438 
1.040834085586084e-017 
0 
0.8737322795113243 
0 
0 
0 
0.5219969047022053 
0.0788912321706456 
-0.1694394117712515 
0.0788912321706456 
0 
0 
0 
0 
-0.09047286774196932 
-1.387778780781446e-017 
0 
0 
-0.3719933479965567 
-8.267041565201971e-018 
0.004451511031496915 
0 
0.07356457073095475 
-1.734723475976807e-018 
0.07356457073095477 
0 
0 
0 
0 
-2.602085213965211e-018 
0.09674699802100704 
0 
8.931115395849343e-018 
0.02723934510719142 
-0.2962878468343658 
0.05617018170212115 
0 
-0.1869633468295054 
0 
0 
0 
0 
0.009960122551412952 
0.3020850337562432 
0 
-0.5716669213630834 
0 
-0.02432334852308167 
-0.8357842038679547 
-0.4028062016647158 
-0.3902628278732895 
-0.2048106432055093 
-0.8092483095666188 
0 
0 
6.938893903907228e-018 
0 
0 
0.02977375439916049 
0.0006597595318478023 
0 
0.07736655843365377 
0 
0.05711755101624686 
0 
0 
0 
0 
0 
0 
-5.421010862427522e-019 
0 
0 
0 
4.336808689942018e-019 
-0.7773889097570811 
0.06151312316977317 
-1.870248747537495e-018 
-1.270549420881451e-019 
-0.5740430707652392 
0 
0 
0.004980061275706481 
0 
3.252606517456513e-019 
0 
0 
0.2144664246606041 
0 
0 
0 
0 
0.2278938715191181 
0 
0.0376279384144621 
0 
0 
0 
0.1894864890070606 
0 
0 
0 
0.8673530734957302 
0.3896168822048819 
0 
0 
-0.8042699137623622 
0 
-0.1938678179287594 
0.06571302926552275 
0.07955099170249336 
0 
-0.03652369988137622 
-0.09248309566618719 
0.0005285502442095602 
0 
-0.03149216075400303 
-0.0819856507287431 
0 
0 
0 
0.01881396920723105 
0.1806213930935529 
-8.673617379884036e-019 
-0.2161281726243672 
0 
-0.009693125463312609 
-2.541098841762901e-019 
0 
0 
0 
0 
-0.1716747645595771 
0 
0 
0 
0 
0.002827945715591784 
0.05276778317657853 
0 
0 
0 
0 
0.0294126389682037 
0 
0.113802593706374 
0.004451511031496915 
0 
0 
0 
-0.8101095226952351 
0 
0.1230262463395464 
0.1510425168781216 
0.06496949010436974 
0.1508988149438812 
0.03727397565465196 
0 
0 
0 
-0.1951314139366448 
0 
0.0326571600641145 
-0.2907189556134563 
0.03265716006411451 
0.08299157864223913 
-1.863472483959461e-020 
0.1410761447391145 
0 
-0.1612673914241618 
-0.1273826121618499 
0 
0.07874552303923334 
0 
3.469446951953614e-018 
0 
-0.3306854664470116 
0 
-4.553649124439119e-018 
0.0615131231697732 
0 
0.06496949010436974 
0 
0 
0 
-0.3403459078587286 
0 
-0.06342760337554899 
0 
-6.938893903907228e-018 
0.3461562880717857 
1.734723475976807e-018 
0 
-5.204170427930421e-018 
0 
0.1072332123303021 
0 
0 
0.1598938739914604 
0 
0 
0 
-0.568236832568508 
0 
-0.7544387634873646 
-0.143031364379048 
6.938893903907228e-018 
0 
0 
0 
0 
0 
-1.843143693225358e-017 
0 
0.03098323503711235 
0 
0.5747194317544045 
-0.09988708097772546 
0 
-0.08535661465166133 
0 
0 
1.734723475976807e-018 
0 
0.8237524736688658 
0 
0 
-0.1820059980537852 
0 
0 
0 
0.04839975092528911 
0 
0.0809456832545435 
0 
-6.938893903907228e-018 
-0.8 
0.5121835860883013 
0 
0 
0.3274923610093355 
-0.06085742049973406 
0 
-0.07271623165995483 
0 
-0.0364768063558934 
-0.1632653061222993 
0 
0.0788912321706456 
-0.01897719254193843 
0 
0.004451511031496915 
-0.102821154161913 
0.0005285502442095602 
0 
-1.270549420881451e-019 
0 
0 
0 
0 
-0.1520947703888393 
0.133334012536048 
0.2035036581793312 
0 
